<?xml version="1.0"?>
<opencv_storage>
<cascade>
  <stageType>BOOST</stageType>
  <featureType>HAAR</featureType>
  <height>16</height>
  <width>16</width>
  <stageParams>
    <boostType>GAB</boostType>
    <minHitRate>9.9500000476837158e-01</minHitRate>
    <maxFalseAlarm>3.4999999403953552e-01</maxFalseAlarm>
    <weightTrimRate>9.4999999999999996e-01</weightTrimRate>
    <maxDepth>1</maxDepth>
    <maxWeakCount>100</maxWeakCount></stageParams>
  <featureParams>
    <maxCatCount>0</maxCatCount>
    <featSize>1</featSize>
    <mode>BASIC</mode></featureParams>
  <stageNum>12</stageNum>
  <stages>
    <!-- stage 0 -->
    <_>
      <maxWeakCount>5</maxWeakCount>
      <stageThreshold>-9.1182971000671387e-01</stageThreshold>
      <weakClassifiers>
        <_>
          <internalNodes>
            0 -1 20 -1.0935598611831665e-01</internalNodes>
          <leafValues>
            3.4328359365463257e-01 -8.4455960988998413e-01</leafValues></_>
        <_>
          <internalNodes>
            0 -1 33 2.5534126907587051e-02</internalNodes>
          <leafValues>
            -4.9711939692497253e-01 8.4904670715332031e-01</leafValues></_>
        <_>
          <internalNodes>
            0 -1 31 2.0114790648221970e-02</internalNodes>
          <leafValues>
            -4.8582923412322998e-01 6.4744842052459717e-01</leafValues></_>
        <_>
          <internalNodes>
            0 -1 39 -5.2762748673558235e-03</internalNodes>
          <leafValues>
            5.6432980298995972e-01 -5.8608895540237427e-01</leafValues></_>
        <_>
          <internalNodes>
            0 -1 29 3.3524546306580305e-03</internalNodes>
          <leafValues>
            3.9540421962738037e-01 -7.8192895650863647e-01</leafValues></_></weakClassifiers></_>
    <!-- stage 1 -->
    <_>
      <maxWeakCount>5</maxWeakCount>
      <stageThreshold>-6.6129565238952637e-01</stageThreshold>
      <weakClassifiers>
        <_>
          <internalNodes>
            0 -1 37 -1.0907173156738281e-02</internalNodes>
          <leafValues>
            6.5517240762710571e-01 -6.8831169605255127e-01</leafValues></_>
        <_>
          <internalNodes>
            0 -1 22 -1.7779817804694176e-02</internalNodes>
          <leafValues>
            4.5363843441009521e-01 -5.9553265571594238e-01</leafValues></_>
        <_>
          <internalNodes>
            0 -1 36 -3.2474867999553680e-02</internalNodes>
          <leafValues>
            5.8441531658172607e-01 -5.1031565666198730e-01</leafValues></_>
        <_>
          <internalNodes>
            0 -1 33 1.4408753253519535e-02</internalNodes>
          <leafValues>
            -3.3259356021881104e-01 7.1353507041931152e-01</leafValues></_>
        <_>
          <internalNodes>
            0 -1 64 -1.4479053206741810e-03</internalNodes>
          <leafValues>
            4.1932922601699829e-01 -6.2320840358734131e-01</leafValues></_></weakClassifiers></_>
    <!-- stage 2 -->
    <_>
      <maxWeakCount>5</maxWeakCount>
      <stageThreshold>-1.4653780460357666e+00</stageThreshold>
      <weakClassifiers>
        <_>
          <internalNodes>
            0 -1 51 4.3382160365581512e-03</internalNodes>
          <leafValues>
            -6.9911503791809082e-01 5.2941179275512695e-01</leafValues></_>
        <_>
          <internalNodes>
            0 -1 58 -5.6353906984440982e-05</internalNodes>
          <leafValues>
            3.0620723962783813e-01 -6.9649571180343628e-01</leafValues></_>
        <_>
          <internalNodes>
            0 -1 15 -2.0208137109875679e-02</internalNodes>
          <leafValues>
            5.4865169525146484e-01 -4.9208840727806091e-01</leafValues></_>
        <_>
          <internalNodes>
            0 -1 12 1.0782829485833645e-03</internalNodes>
          <leafValues>
            -3.5241928696632385e-01 6.9248843193054199e-01</leafValues></_>
        <_>
          <internalNodes>
            0 -1 10 -3.5156840458512306e-03</internalNodes>
          <leafValues>
            -4.5378634333610535e-01 5.0062084197998047e-01</leafValues></_></weakClassifiers></_>
    <!-- stage 3 -->
    <_>
      <maxWeakCount>6</maxWeakCount>
      <stageThreshold>-1.0209727287292480e+00</stageThreshold>
      <weakClassifiers>
        <_>
          <internalNodes>
            0 -1 41 1.1785112321376801e-02</internalNodes>
          <leafValues>
            -6.7381972074508667e-01 6.2962961196899414e-01</leafValues></_>
        <_>
          <internalNodes>
            0 -1 46 -9.1389112640172243e-04</internalNodes>
          <leafValues>
            5.3441911935806274e-01 -5.9897077083587646e-01</leafValues></_>
        <_>
          <internalNodes>
            0 -1 25 -1.1722098861355335e-04</internalNodes>
          <leafValues>
            5.2785128355026245e-01 -5.1417946815490723e-01</leafValues></_>
        <_>
          <internalNodes>
            0 -1 24 -1.2576929293572903e-04</internalNodes>
          <leafValues>
            6.3070714473724365e-01 -4.7734737396240234e-01</leafValues></_>
        <_>
          <internalNodes>
            0 -1 57 -1.4949176693335176e-04</internalNodes>
          <leafValues>
            6.8931764364242554e-01 -4.4835501909255981e-01</leafValues></_>
        <_>
          <internalNodes>
            0 -1 50 4.6421555452980101e-05</internalNodes>
          <leafValues>
            -4.5838567614555359e-01 6.1942631006240845e-01</leafValues></_></weakClassifiers></_>
    <!-- stage 4 -->
    <_>
      <maxWeakCount>6</maxWeakCount>
      <stageThreshold>-9.5051068067550659e-01</stageThreshold>
      <weakClassifiers>
        <_>
          <internalNodes>
            0 -1 14 1.0915450751781464e-02</internalNodes>
          <leafValues>
            -6.5811967849731445e-01 5.3846156597137451e-01</leafValues></_>
        <_>
          <internalNodes>
            0 -1 17 -3.6363216349855065e-04</internalNodes>
          <leafValues>
            4.4904124736785889e-01 -4.4655272364616394e-01</leafValues></_>
        <_>
          <internalNodes>
            0 -1 19 -9.6915382891893387e-03</internalNodes>
          <leafValues>
            6.5250813961029053e-01 -3.2464423775672913e-01</leafValues></_>
        <_>
          <internalNodes>
            0 -1 23 -3.1318678520619869e-03</internalNodes>
          <leafValues>
            4.8738455772399902e-01 -4.4495522975921631e-01</leafValues></_>
        <_>
          <internalNodes>
            0 -1 59 -1.2189280096208677e-04</internalNodes>
          <leafValues>
            4.9392375349998474e-01 -4.0986371040344238e-01</leafValues></_>
        <_>
          <internalNodes>
            0 -1 8 -9.2078058514744043e-05</internalNodes>
          <leafValues>
            4.0417361259460449e-01 -5.0250238180160522e-01</leafValues></_></weakClassifiers></_>
    <!-- stage 5 -->
    <_>
      <maxWeakCount>6</maxWeakCount>
      <stageThreshold>-9.6525543928146362e-01</stageThreshold>
      <weakClassifiers>
        <_>
          <internalNodes>
            0 -1 52 7.1017853915691376e-03</internalNodes>
          <leafValues>
            -6.6523605585098267e-01 5.5555558204650879e-01</leafValues></_>
        <_>
          <internalNodes>
            0 -1 35 3.4317122772336006e-03</internalNodes>
          <leafValues>
            -4.0569821000099182e-01 6.3235914707183838e-01</leafValues></_>
        <_>
          <internalNodes>
            0 -1 55 3.6639426834881306e-03</internalNodes>
          <leafValues>
            -3.9729657769203186e-01 6.3409692049026489e-01</leafValues></_>
        <_>
          <internalNodes>
            0 -1 3 5.6053409352898598e-03</internalNodes>
          <leafValues>
            3.6309137940406799e-01 -6.8372082710266113e-01</leafValues></_>
        <_>
          <internalNodes>
            0 -1 48 -5.5415276437997818e-03</internalNodes>
          <leafValues>
            5.7395327091217041e-01 -3.8007834553718567e-01</leafValues></_>
        <_>
          <internalNodes>
            0 -1 65 -6.2340004660654813e-05</internalNodes>
          <leafValues>
            5.3538113832473755e-01 -4.7727775573730469e-01</leafValues></_></weakClassifiers></_>
    <!-- stage 6 -->
    <_>
      <maxWeakCount>7</maxWeakCount>
      <stageThreshold>-8.7822151184082031e-01</stageThreshold>
      <weakClassifiers>
        <_>
          <internalNodes>
            0 -1 63 1.3103138655424118e-02</internalNodes>
          <leafValues>
            -6.5957444906234741e-01 6.0000002384185791e-01</leafValues></_>
        <_>
          <internalNodes>
            0 -1 4 -1.9469972699880600e-02</internalNodes>
          <leafValues>
            -7.1350371837615967e-01 1.8924726545810699e-01</leafValues></_>
        <_>
          <internalNodes>
            0 -1 21 -9.0917451307177544e-03</internalNodes>
          <leafValues>
            4.1574212908744812e-01 -4.6365970373153687e-01</leafValues></_>
        <_>
          <internalNodes>
            0 -1 56 -8.3280699327588081e-03</internalNodes>
          <leafValues>
            6.5163052082061768e-01 -3.3413964509963989e-01</leafValues></_>
        <_>
          <internalNodes>
            0 -1 28 -1.8610651604831219e-03</internalNodes>
          <leafValues>
            5.4597955942153931e-01 -3.6437278985977173e-01</leafValues></_>
        <_>
          <internalNodes>
            0 -1 60 -1.9938931800425053e-03</internalNodes>
          <leafValues>
            5.8098214864730835e-01 -3.6843746900558472e-01</leafValues></_>
        <_>
          <internalNodes>
            0 -1 69 3.4832442179322243e-03</internalNodes>
          <leafValues>
            3.4799653291702271e-01 -6.6703885793685913e-01</leafValues></_></weakClassifiers></_>
    <!-- stage 7 -->
    <_>
      <maxWeakCount>7</maxWeakCount>
      <stageThreshold>-9.7698074579238892e-01</stageThreshold>
      <weakClassifiers>
        <_>
          <internalNodes>
            0 -1 7 4.2220283648930490e-04</internalNodes>
          <leafValues>
            -8.3458644151687622e-01 -2.2834645211696625e-01</leafValues></_>
        <_>
          <internalNodes>
            0 -1 45 -1.5974078327417374e-02</internalNodes>
          <leafValues>
            3.0452704429626465e-01 -4.3986374139785767e-01</leafValues></_>
        <_>
          <internalNodes>
            0 -1 53 -4.7127679863478988e-05</internalNodes>
          <leafValues>
            3.3641821146011353e-01 -4.3979355692863464e-01</leafValues></_>
        <_>
          <internalNodes>
            0 -1 2 -1.1915241181850433e-01</internalNodes>
          <leafValues>
            4.7123932838439941e-01 -3.9338934421539307e-01</leafValues></_>
        <_>
          <internalNodes>
            0 -1 26 6.0690576210618019e-03</internalNodes>
          <leafValues>
            -2.1871209144592285e-01 7.8019726276397705e-01</leafValues></_>
        <_>
          <internalNodes>
            0 -1 6 -4.0333527140319347e-03</internalNodes>
          <leafValues>
            -7.5091576576232910e-01 2.6003110408782959e-01</leafValues></_>
        <_>
          <internalNodes>
            0 -1 13 1.1934444773942232e-03</internalNodes>
          <leafValues>
            -2.8495103120803833e-01 7.1143209934234619e-01</leafValues></_></weakClassifiers></_>
    <!-- stage 8 -->
    <_>
      <maxWeakCount>8</maxWeakCount>
      <stageThreshold>-9.4057959318161011e-01</stageThreshold>
      <weakClassifiers>
        <_>
          <internalNodes>
            0 -1 62 -1.2422913685441017e-02</internalNodes>
          <leafValues>
            8.4615385532379150e-01 -6.1133605241775513e-01</leafValues></_>
        <_>
          <internalNodes>
            0 -1 68 2.3841620422899723e-03</internalNodes>
          <leafValues>
            9.0982966125011444e-02 -9.0782505273818970e-01</leafValues></_>
        <_>
          <internalNodes>
            0 -1 47 -2.2275873925536871e-03</internalNodes>
          <leafValues>
            4.1445893049240112e-01 -3.7616243958473206e-01</leafValues></_>
        <_>
          <internalNodes>
            0 -1 67 6.2634637288283557e-05</internalNodes>
          <leafValues>
            -3.1676203012466431e-01 5.8189296722412109e-01</leafValues></_>
        <_>
          <internalNodes>
            0 -1 32 1.8995627760887146e-02</internalNodes>
          <leafValues>
            -2.9882875084877014e-01 6.4461380243301392e-01</leafValues></_>
        <_>
          <internalNodes>
            0 -1 54 6.5892956627067178e-05</internalNodes>
          <leafValues>
            -4.1397234797477722e-01 4.2760470509529114e-01</leafValues></_>
        <_>
          <internalNodes>
            0 -1 43 -9.9187344312667847e-03</internalNodes>
          <leafValues>
            6.8235838413238525e-01 -2.5566467642784119e-01</leafValues></_>
        <_>
          <internalNodes>
            0 -1 66 -9.3168455350678414e-05</internalNodes>
          <leafValues>
            4.2168191075325012e-01 -3.9103472232818604e-01</leafValues></_></weakClassifiers></_>
    <!-- stage 9 -->
    <_>
      <maxWeakCount>4</maxWeakCount>
      <stageThreshold>-7.7034336328506470e-01</stageThreshold>
      <weakClassifiers>
        <_>
          <internalNodes>
            0 -1 49 -2.9655732214450836e-03</internalNodes>
          <leafValues>
            -9.4701987504959106e-01 2.7522936463356018e-02</leafValues></_>
        <_>
          <internalNodes>
            0 -1 11 -1.2423424981534481e-02</internalNodes>
          <leafValues>
            3.2620519399642944e-01 -6.5748298168182373e-01</leafValues></_>
        <_>
          <internalNodes>
            0 -1 16 -1.6226177103817463e-03</internalNodes>
          <leafValues>
            6.6215401887893677e-01 -4.2461997270584106e-01</leafValues></_>
        <_>
          <internalNodes>
            0 -1 38 -8.3759456872940063e-02</internalNodes>
          <leafValues>
            -9.4667738676071167e-01 2.8423666954040527e-01</leafValues></_></weakClassifiers></_>
    <!-- stage 10 -->
    <_>
      <maxWeakCount>7</maxWeakCount>
      <stageThreshold>-1.1141062974929810e+00</stageThreshold>
      <weakClassifiers>
        <_>
          <internalNodes>
            0 -1 18 2.5221163034439087e-01</internalNodes>
          <leafValues>
            -6.1133605241775513e-01 8.4615385532379150e-01</leafValues></_>
        <_>
          <internalNodes>
            0 -1 30 -2.4298723787069321e-02</internalNodes>
          <leafValues>
            3.7524864077568054e-01 -5.4352986812591553e-01</leafValues></_>
        <_>
          <internalNodes>
            0 -1 27 1.0879185050725937e-02</internalNodes>
          <leafValues>
            -3.8112273812294006e-01 4.6532079577445984e-01</leafValues></_>
        <_>
          <internalNodes>
            0 -1 40 -1.9454143475741148e-03</internalNodes>
          <leafValues>
            3.3022889494895935e-01 -5.8674800395965576e-01</leafValues></_>
        <_>
          <internalNodes>
            0 -1 0 -5.7641202583909035e-03</internalNodes>
          <leafValues>
            -6.2407594919204712e-01 3.1522336602210999e-01</leafValues></_>
        <_>
          <internalNodes>
            0 -1 34 -6.6241836175322533e-03</internalNodes>
          <leafValues>
            2.9516085982322693e-01 -6.0785120725631714e-01</leafValues></_>
        <_>
          <internalNodes>
            0 -1 61 -1.6067384276539087e-03</internalNodes>
          <leafValues>
            3.8428136706352234e-01 -5.1879531145095825e-01</leafValues></_></weakClassifiers></_>
    <!-- stage 11 -->
    <_>
      <maxWeakCount>5</maxWeakCount>
      <stageThreshold>-7.5757211446762085e-01</stageThreshold>
      <weakClassifiers>
        <_>
          <internalNodes>
            0 -1 5 8.0883869668468833e-04</internalNodes>
          <leafValues>
            -3.4694469519536142e-17 -8.9743590354919434e-01</leafValues></_>
        <_>
          <internalNodes>
            0 -1 44 6.7076636478304863e-03</internalNodes>
          <leafValues>
            1.6825576126575470e-01 -9.0973091125488281e-01</leafValues></_>
        <_>
          <internalNodes>
            0 -1 9 -2.9548594355583191e-01</internalNodes>
          <leafValues>
            6.6429162025451660e-01 -3.5383856296539307e-01</leafValues></_>
        <_>
          <internalNodes>
            0 -1 1 4.1573621332645416e-02</internalNodes>
          <leafValues>
            2.7551344037055969e-01 -7.9438173770904541e-01</leafValues></_>
        <_>
          <internalNodes>
            0 -1 42 -2.1410654298961163e-03</internalNodes>
          <leafValues>
            -7.1421360969543457e-01 2.8224894404411316e-01</leafValues></_></weakClassifiers></_></stages>
  <features>
    <_>
      <rects>
        <_>
          0 0 3 6 -1.</_>
        <_>
          0 3 3 3 2.</_></rects>
      <tilted>0</tilted></_>
    <_>
      <rects>
        <_>
          0 0 6 5 -1.</_>
        <_>
          3 0 3 5 2.</_></rects>
      <tilted>0</tilted></_>
    <_>
      <rects>
        <_>
          0 0 12 13 -1.</_>
        <_>
          4 0 4 13 3.</_></rects>
      <tilted>0</tilted></_>
    <_>
      <rects>
        <_>
          0 1 1 15 -1.</_>
        <_>
          0 6 1 5 3.</_></rects>
      <tilted>0</tilted></_>
    <_>
      <rects>
        <_>
          0 1 3 8 -1.</_>
        <_>
          0 5 3 4 2.</_></rects>
      <tilted>0</tilted></_>
    <_>
      <rects>
        <_>
          0 2 2 3 -1.</_>
        <_>
          0 3 2 1 3.</_></rects>
      <tilted>0</tilted></_>
    <_>
      <rects>
        <_>
          0 3 2 6 -1.</_>
        <_>
          1 3 1 6 2.</_></rects>
      <tilted>0</tilted></_>
    <_>
      <rects>
        <_>
          0 7 2 4 -1.</_>
        <_>
          1 7 1 4 2.</_></rects>
      <tilted>0</tilted></_>
    <_>
      <rects>
        <_>
          0 13 3 3 -1.</_>
        <_>
          0 14 3 1 3.</_></rects>
      <tilted>0</tilted></_>
    <_>
      <rects>
        <_>
          1 0 14 16 -1.</_>
        <_>
          8 0 7 16 2.</_></rects>
      <tilted>0</tilted></_>
    <_>
      <rects>
        <_>
          1 2 2 10 -1.</_>
        <_>
          1 7 2 5 2.</_></rects>
      <tilted>0</tilted></_>
    <_>
      <rects>
        <_>
          1 9 12 1 -1.</_>
        <_>
          5 9 4 1 3.</_></rects>
      <tilted>0</tilted></_>
    <_>
      <rects>
        <_>
          2 4 2 2 -1.</_>
        <_>
          2 4 1 1 2.</_>
        <_>
          3 5 1 1 2.</_></rects>
      <tilted>0</tilted></_>
    <_>
      <rects>
        <_>
          2 5 2 2 -1.</_>
        <_>
          2 5 1 1 2.</_>
        <_>
          3 6 1 1 2.</_></rects>
      <tilted>0</tilted></_>
    <_>
      <rects>
        <_>
          2 8 2 6 -1.</_>
        <_>
          2 8 1 3 2.</_>
        <_>
          3 11 1 3 2.</_></rects>
      <tilted>0</tilted></_>
    <_>
      <rects>
        <_>
          2 9 12 1 -1.</_>
        <_>
          6 9 4 1 3.</_></rects>
      <tilted>0</tilted></_>
    <_>
      <rects>
        <_>
          2 10 3 1 -1.</_>
        <_>
          3 10 1 1 3.</_></rects>
      <tilted>0</tilted></_>
    <_>
      <rects>
        <_>
          2 10 2 2 -1.</_>
        <_>
          2 10 1 1 2.</_>
        <_>
          3 11 1 1 2.</_></rects>
      <tilted>0</tilted></_>
    <_>
      <rects>
        <_>
          3 0 12 6 -1.</_>
        <_>
          9 0 6 6 2.</_></rects>
      <tilted>0</tilted></_>
    <_>
      <rects>
        <_>
          3 2 7 3 -1.</_>
        <_>
          3 3 7 1 3.</_></rects>
      <tilted>0</tilted></_>
    <_>
      <rects>
        <_>
          3 2 10 12 -1.</_>
        <_>
          3 6 10 4 3.</_></rects>
      <tilted>0</tilted></_>
    <_>
      <rects>
        <_>
          3 3 5 6 -1.</_>
        <_>
          3 5 5 2 3.</_></rects>
      <tilted>0</tilted></_>
    <_>
      <rects>
        <_>
          3 3 6 4 -1.</_>
        <_>
          3 5 6 2 2.</_></rects>
      <tilted>0</tilted></_>
    <_>
      <rects>
        <_>
          3 5 2 4 -1.</_>
        <_>
          3 7 2 2 2.</_></rects>
      <tilted>0</tilted></_>
    <_>
      <rects>
        <_>
          3 13 1 2 -1.</_>
        <_>
          3 14 1 1 2.</_></rects>
      <tilted>0</tilted></_>
    <_>
      <rects>
        <_>
          3 14 2 2 -1.</_>
        <_>
          3 14 1 1 2.</_>
        <_>
          4 15 1 1 2.</_></rects>
      <tilted>0</tilted></_>
    <_>
      <rects>
        <_>
          4 3 3 2 -1.</_>
        <_>
          5 3 1 2 3.</_></rects>
      <tilted>0</tilted></_>
    <_>
      <rects>
        <_>
          4 3 6 6 -1.</_>
        <_>
          4 3 3 3 2.</_>
        <_>
          7 6 3 3 2.</_></rects>
      <tilted>0</tilted></_>
    <_>
      <rects>
        <_>
          4 3 5 3 -1.</_>
        <_>
          4 4 5 1 3.</_></rects>
      <tilted>0</tilted></_>
    <_>
      <rects>
        <_>
          4 8 3 7 -1.</_>
        <_>
          5 8 1 7 3.</_></rects>
      <tilted>0</tilted></_>
    <_>
      <rects>
        <_>
          4 9 9 3 -1.</_>
        <_>
          7 9 3 3 3.</_></rects>
      <tilted>0</tilted></_>
    <_>
      <rects>
        <_>
          4 10 8 4 -1.</_>
        <_>
          4 12 8 2 2.</_></rects>
      <tilted>0</tilted></_>
    <_>
      <rects>
        <_>
          4 13 8 3 -1.</_>
        <_>
          4 14 8 1 3.</_></rects>
      <tilted>0</tilted></_>
    <_>
      <rects>
        <_>
          4 13 9 3 -1.</_>
        <_>
          4 14 9 1 3.</_></rects>
      <tilted>0</tilted></_>
    <_>
      <rects>
        <_>
          5 0 1 10 -1.</_>
        <_>
          5 5 1 5 2.</_></rects>
      <tilted>0</tilted></_>
    <_>
      <rects>
        <_>
          5 0 3 2 -1.</_>
        <_>
          5 1 3 1 2.</_></rects>
      <tilted>0</tilted></_>
    <_>
      <rects>
        <_>
          5 6 4 9 -1.</_>
        <_>
          5 9 4 3 3.</_></rects>
      <tilted>0</tilted></_>
    <_>
      <rects>
        <_>
          6 2 4 3 -1.</_>
        <_>
          6 3 4 1 3.</_></rects>
      <tilted>0</tilted></_>
    <_>
      <rects>
        <_>
          6 4 6 12 -1.</_>
        <_>
          8 4 2 12 3.</_></rects>
      <tilted>0</tilted></_>
    <_>
      <rects>
        <_>
          6 5 10 3 -1.</_>
        <_>
          6 6 10 1 3.</_></rects>
      <tilted>0</tilted></_>
    <_>
      <rects>
        <_>
          6 8 9 1 -1.</_>
        <_>
          9 8 3 1 3.</_></rects>
      <tilted>0</tilted></_>
    <_>
      <rects>
        <_>
          6 12 3 3 -1.</_>
        <_>
          6 13 3 1 3.</_></rects>
      <tilted>0</tilted></_>
    <_>
      <rects>
        <_>
          6 14 3 2 -1.</_>
        <_>
          7 14 1 2 3.</_></rects>
      <tilted>0</tilted></_>
    <_>
      <rects>
        <_>
          7 0 1 6 -1.</_>
        <_>
          7 2 1 2 3.</_></rects>
      <tilted>0</tilted></_>
    <_>
      <rects>
        <_>
          7 0 3 3 -1.</_>
        <_>
          8 0 1 3 3.</_></rects>
      <tilted>0</tilted></_>
    <_>
      <rects>
        <_>
          7 8 7 6 -1.</_>
        <_>
          7 10 7 2 3.</_></rects>
      <tilted>0</tilted></_>
    <_>
      <rects>
        <_>
          7 12 1 3 -1.</_>
        <_>
          7 13 1 1 3.</_></rects>
      <tilted>0</tilted></_>
    <_>
      <rects>
        <_>
          7 13 4 2 -1.</_>
        <_>
          7 14 4 1 2.</_></rects>
      <tilted>0</tilted></_>
    <_>
      <rects>
        <_>
          8 8 1 6 -1.</_>
        <_>
          8 10 1 2 3.</_></rects>
      <tilted>0</tilted></_>
    <_>
      <rects>
        <_>
          8 15 3 1 -1.</_>
        <_>
          9 15 1 1 3.</_></rects>
      <tilted>0</tilted></_>
    <_>
      <rects>
        <_>
          9 0 1 2 -1.</_>
        <_>
          9 1 1 1 2.</_></rects>
      <tilted>0</tilted></_>
    <_>
      <rects>
        <_>
          9 1 1 3 -1.</_>
        <_>
          9 2 1 1 3.</_></rects>
      <tilted>0</tilted></_>
    <_>
      <rects>
        <_>
          9 5 4 2 -1.</_>
        <_>
          9 5 2 1 2.</_>
        <_>
          11 6 2 1 2.</_></rects>
      <tilted>0</tilted></_>
    <_>
      <rects>
        <_>
          9 8 5 3 -1.</_>
        <_>
          9 9 5 1 3.</_></rects>
      <tilted>0</tilted></_>
    <_>
      <rects>
        <_>
          9 15 4 1 -1.</_>
        <_>
          11 15 2 1 2.</_></rects>
      <tilted>0</tilted></_>
    <_>
      <rects>
        <_>
          10 2 2 3 -1.</_>
        <_>
          10 3 2 1 3.</_></rects>
      <tilted>0</tilted></_>
    <_>
      <rects>
        <_>
          10 5 1 6 -1.</_>
        <_>
          10 7 1 2 3.</_></rects>
      <tilted>0</tilted></_>
    <_>
      <rects>
        <_>
          10 7 2 1 -1.</_>
        <_>
          11 7 1 1 2.</_></rects>
      <tilted>0</tilted></_>
    <_>
      <rects>
        <_>
          10 7 1 3 -1.</_>
        <_>
          10 8 1 1 3.</_></rects>
      <tilted>0</tilted></_>
    <_>
      <rects>
        <_>
          11 1 1 3 -1.</_>
        <_>
          11 2 1 1 3.</_></rects>
      <tilted>0</tilted></_>
    <_>
      <rects>
        <_>
          11 5 3 1 -1.</_>
        <_>
          12 5 1 1 3.</_></rects>
      <tilted>0</tilted></_>
    <_>
      <rects>
        <_>
          11 8 3 5 -1.</_>
        <_>
          12 8 1 5 3.</_></rects>
      <tilted>0</tilted></_>
    <_>
      <rects>
        <_>
          11 11 2 4 -1.</_>
        <_>
          11 11 1 2 2.</_>
        <_>
          12 13 1 2 2.</_></rects>
      <tilted>0</tilted></_>
    <_>
      <rects>
        <_>
          12 1 2 6 -1.</_>
        <_>
          12 1 1 3 2.</_>
        <_>
          13 4 1 3 2.</_></rects>
      <tilted>0</tilted></_>
    <_>
      <rects>
        <_>
          12 5 4 10 -1.</_>
        <_>
          12 10 4 5 2.</_></rects>
      <tilted>0</tilted></_>
    <_>
      <rects>
        <_>
          12 13 1 3 -1.</_>
        <_>
          12 14 1 1 3.</_></rects>
      <tilted>0</tilted></_>
    <_>
      <rects>
        <_>
          13 8 3 2 -1.</_>
        <_>
          14 8 1 2 3.</_></rects>
      <tilted>0</tilted></_>
    <_>
      <rects>
        <_>
          14 11 2 1 -1.</_>
        <_>
          15 11 1 1 2.</_></rects>
      <tilted>0</tilted></_>
    <_>
      <rects>
        <_>
          14 12 2 2 -1.</_>
        <_>
          15 12 1 2 2.</_></rects>
      <tilted>0</tilted></_>
    <_>
      <rects>
        <_>
          15 1 1 9 -1.</_>
        <_>
          15 4 1 3 3.</_></rects>
      <tilted>0</tilted></_></features></cascade>
</opencv_storage>
