<?xml version="1.0"?>
<opencv_storage>
<cascade>
  <stageType>BOOST</stageType>
  <featureType>HAAR</featureType>
  <height>12</height>
  <width>12</width>
  <stageParams>
    <boostType>GAB</boostType>
    <minHitRate>9.9500000476837158e-01</minHitRate>
    <maxFalseAlarm>5.0000000000000000e-01</maxFalseAlarm>
    <weightTrimRate>9.4999999999999996e-01</weightTrimRate>
    <maxDepth>1</maxDepth>
    <maxWeakCount>100</maxWeakCount></stageParams>
  <featureParams>
    <maxCatCount>0</maxCatCount>
    <featSize>1</featSize>
    <mode>BASIC</mode></featureParams>
  <stageNum>2</stageNum>
  <stages>
    <!-- stage 0 -->
    <_>
      <maxWeakCount>4</maxWeakCount>
      <stageThreshold>-1.4195599555969238e+00</stageThreshold>
      <weakClassifiers>
        <_>
          <internalNodes>
            0 -1 2 -1.7095811665058136e-01</internalNodes>
          <leafValues>
            7.0629370212554932e-01 -9.1217565536499023e-01</leafValues></_>
        <_>
          <internalNodes>
            0 -1 0 1.7490713298320770e-01</internalNodes>
          <leafValues>
            -6.7342692613601685e-01 6.7967665195465088e-01</leafValues></_>
        <_>
          <internalNodes>
            0 -1 1 1.0365486145019531e-01</internalNodes>
          <leafValues>
            -4.0360143780708313e-01 5.9791320562362671e-01</leafValues></_>
        <_>
          <internalNodes>
            0 -1 5 -9.8437815904617310e-02</internalNodes>
          <leafValues>
            7.0090800523757935e-01 -4.3187063932418823e-01</leafValues></_></weakClassifiers></_>
    <!-- stage 1 -->
    <_>
      <maxWeakCount>5</maxWeakCount>
      <stageThreshold>-1.4481329917907715e+00</stageThreshold>
      <weakClassifiers>
        <_>
          <internalNodes>
            0 -1 4 4.4550257921218872e-01</internalNodes>
          <leafValues>
            -8.3397680521011353e-01 6.0317462682723999e-01</leafValues></_>
        <_>
          <internalNodes>
            0 -1 8 -3.2418012619018555e-02</internalNodes>
          <leafValues>
            3.3182886242866516e-01 -6.8913918733596802e-01</leafValues></_>
        <_>
          <internalNodes>
            0 -1 6 6.0503900051116943e-02</internalNodes>
          <leafValues>
            -5.0779110193252563e-01 5.5095946788787842e-01</leafValues></_>
        <_>
          <internalNodes>
            0 -1 3 2.3838808760046959e-02</internalNodes>
          <leafValues>
            2.8298723697662354e-01 -8.7523108720779419e-01</leafValues></_>
        <_>
          <internalNodes>
            0 -1 7 -6.1019414715701714e-05</internalNodes>
          <leafValues>
            3.9925467967987061e-01 -5.6057846546173096e-01</leafValues></_></weakClassifiers></_></stages>
  <features>
    <_>
      <rects>
        <_>
          0 2 12 2 -1.</_>
        <_>
          4 2 4 2 3.</_></rects>
      <tilted>0</tilted></_>
    <_>
      <rects>
        <_>
          0 3 4 7 -1.</_>
        <_>
          2 3 2 7 2.</_></rects>
      <tilted>0</tilted></_>
    <_>
      <rects>
        <_>
          1 6 8 6 -1.</_>
        <_>
          1 9 8 3 2.</_></rects>
      <tilted>0</tilted></_>
    <_>
      <rects>
        <_>
          2 0 10 3 -1.</_>
        <_>
          7 0 5 3 2.</_></rects>
      <tilted>0</tilted></_>
    <_>
      <rects>
        <_>
          2 0 7 12 -1.</_>
        <_>
          2 4 7 4 3.</_></rects>
      <tilted>0</tilted></_>
    <_>
      <rects>
        <_>
          3 2 7 6 -1.</_>
        <_>
          3 5 7 3 2.</_></rects>
      <tilted>0</tilted></_>
    <_>
      <rects>
        <_>
          4 0 6 4 -1.</_>
        <_>
          4 2 6 2 2.</_></rects>
      <tilted>0</tilted></_>
    <_>
      <rects>
        <_>
          4 7 2 1 -1.</_>
        <_>
          5 7 1 1 2.</_></rects>
      <tilted>0</tilted></_>
    <_>
      <rects>
        <_>
          5 8 4 4 -1.</_>
        <_>
          5 10 4 2 2.</_></rects>
      <tilted>0</tilted></_></features></cascade>
</opencv_storage>
