<?xml version="1.0"?>
<opencv_storage>
<cascade>
  <stageType>BOOST</stageType>
  <featureType>HAAR</featureType>
  <height>12</height>
  <width>12</width>
  <stageParams>
    <boostType>GAB</boostType>
    <minHitRate>9.9500000476837158e-01</minHitRate>
    <maxFalseAlarm>3.0000001192092896e-01</maxFalseAlarm>
    <weightTrimRate>9.4999999999999996e-01</weightTrimRate>
    <maxDepth>1</maxDepth>
    <maxWeakCount>100</maxWeakCount></stageParams>
  <featureParams>
    <maxCatCount>0</maxCatCount>
    <featSize>1</featSize>
    <mode>BASIC</mode></featureParams>
  <stageNum>3</stageNum>
  <stages>
    <!-- stage 0 -->
    <_>
      <maxWeakCount>7</maxWeakCount>
      <stageThreshold>-1.2932949066162109e+00</stageThreshold>
      <weakClassifiers>
        <_>
          <internalNodes>
            0 -1 9 -1.7095811665058136e-01</internalNodes>
          <leafValues>
            7.9904305934906006e-01 -8.5658913850784302e-01</leafValues></_>
        <_>
          <internalNodes>
            0 -1 13 6.1131976544857025e-02</internalNodes>
          <leafValues>
            -6.2233018875122070e-01 5.8518004417419434e-01</leafValues></_>
        <_>
          <internalNodes>
            0 -1 3 -5.1930766552686691e-02</internalNodes>
          <leafValues>
            4.9188297986984253e-01 -4.7623443603515625e-01</leafValues></_>
        <_>
          <internalNodes>
            0 -1 19 -2.8064811602234840e-02</internalNodes>
          <leafValues>
            7.2330790758132935e-01 -2.8636857867240906e-01</leafValues></_>
        <_>
          <internalNodes>
            0 -1 17 -1.9152125716209412e-01</internalNodes>
          <leafValues>
            7.2195118665695190e-01 -3.3972829580307007e-01</leafValues></_>
        <_>
          <internalNodes>
            0 -1 20 -8.6903244256973267e-02</internalNodes>
          <leafValues>
            5.6666678190231323e-01 -3.2165917754173279e-01</leafValues></_>
        <_>
          <internalNodes>
            0 -1 14 -1.0658781230449677e-01</internalNodes>
          <leafValues>
            8.2237720489501953e-01 -2.4682837724685669e-01</leafValues></_></weakClassifiers></_>
    <!-- stage 1 -->
    <_>
      <maxWeakCount>10</maxWeakCount>
      <stageThreshold>-1.2343614101409912e+00</stageThreshold>
      <weakClassifiers>
        <_>
          <internalNodes>
            0 -1 2 1.3718524575233459e-01</internalNodes>
          <leafValues>
            -7.5486379861831665e-01 5.3554505109786987e-01</leafValues></_>
        <_>
          <internalNodes>
            0 -1 10 -1.9451859593391418e-01</internalNodes>
          <leafValues>
            4.0626636147499084e-01 -5.3006756305694580e-01</leafValues></_>
        <_>
          <internalNodes>
            0 -1 18 3.9429426193237305e-02</internalNodes>
          <leafValues>
            -4.3289318680763245e-01 4.5179092884063721e-01</leafValues></_>
        <_>
          <internalNodes>
            0 -1 21 9.5992106944322586e-03</internalNodes>
          <leafValues>
            1.9263657927513123e-01 -8.9246207475662231e-01</leafValues></_>
        <_>
          <internalNodes>
            0 -1 8 -2.8621759265661240e-02</internalNodes>
          <leafValues>
            7.3764014244079590e-01 -2.3323151469230652e-01</leafValues></_>
        <_>
          <internalNodes>
            0 -1 11 -4.3223006650805473e-03</internalNodes>
          <leafValues>
            5.3885096311569214e-01 -2.9412034153938293e-01</leafValues></_>
        <_>
          <internalNodes>
            0 -1 12 -6.4876992837525904e-05</internalNodes>
          <leafValues>
            4.0994220972061157e-01 -3.9470303058624268e-01</leafValues></_>
        <_>
          <internalNodes>
            0 -1 23 -4.4253617525100708e-02</internalNodes>
          <leafValues>
            -8.9063489437103271e-01 2.0604097843170166e-01</leafValues></_>
        <_>
          <internalNodes>
            0 -1 24 -3.7175167817622423e-03</internalNodes>
          <leafValues>
            -9.4574773311614990e-01 1.1972486972808838e-01</leafValues></_>
        <_>
          <internalNodes>
            0 -1 5 1.4304470969364047e-03</internalNodes>
          <leafValues>
            1.7994853854179382e-01 -6.9735980033874512e-01</leafValues></_></weakClassifiers></_>
    <!-- stage 2 -->
    <_>
      <maxWeakCount>8</maxWeakCount>
      <stageThreshold>-8.9464169740676880e-01</stageThreshold>
      <weakClassifiers>
        <_>
          <internalNodes>
            0 -1 4 -5.8047041296958923e-02</internalNodes>
          <leafValues>
            5.3216373920440674e-01 -6.6064983606338501e-01</leafValues></_>
        <_>
          <internalNodes>
            0 -1 22 -6.8590416049119085e-05</internalNodes>
          <leafValues>
            4.2165705561637878e-01 -6.2169259786605835e-01</leafValues></_>
        <_>
          <internalNodes>
            0 -1 16 4.5973666012287140e-02</internalNodes>
          <leafValues>
            -4.0613642334938049e-01 5.2412307262420654e-01</leafValues></_>
        <_>
          <internalNodes>
            0 -1 0 2.1553514525294304e-02</internalNodes>
          <leafValues>
            2.3369926214218140e-01 -8.7445646524429321e-01</leafValues></_>
        <_>
          <internalNodes>
            0 -1 7 1.5276741981506348e-01</internalNodes>
          <leafValues>
            -3.8142845034599304e-01 5.3355103731155396e-01</leafValues></_>
        <_>
          <internalNodes>
            0 -1 15 2.5190655142068863e-02</internalNodes>
          <leafValues>
            -2.5193816423416138e-01 7.5346899032592773e-01</leafValues></_>
        <_>
          <internalNodes>
            0 -1 1 2.2942716255784035e-02</internalNodes>
          <leafValues>
            2.5589871406555176e-01 -8.5385441780090332e-01</leafValues></_>
        <_>
          <internalNodes>
            0 -1 6 -2.5284044444561005e-02</internalNodes>
          <leafValues>
            -7.8915506601333618e-01 2.0052251219749451e-01</leafValues></_></weakClassifiers></_></stages>
  <features>
    <_>
      <rects>
        <_>
          0 0 1 9 -1.</_>
        <_>
          0 3 1 3 3.</_></rects>
      <tilted>0</tilted></_>
    <_>
      <rects>
        <_>
          0 0 1 10 -1.</_>
        <_>
          0 5 1 5 2.</_></rects>
      <tilted>0</tilted></_>
    <_>
      <rects>
        <_>
          0 3 4 6 -1.</_>
        <_>
          2 3 2 6 2.</_></rects>
      <tilted>0</tilted></_>
    <_>
      <rects>
        <_>
          0 4 3 8 -1.</_>
        <_>
          0 8 3 4 2.</_></rects>
      <tilted>0</tilted></_>
    <_>
      <rects>
        <_>
          0 6 4 6 -1.</_>
        <_>
          0 6 2 3 2.</_>
        <_>
          2 9 2 3 2.</_></rects>
      <tilted>0</tilted></_>
    <_>
      <rects>
        <_>
          0 9 2 3 -1.</_>
        <_>
          0 10 2 1 3.</_></rects>
      <tilted>0</tilted></_>
    <_>
      <rects>
        <_>
          1 0 8 2 -1.</_>
        <_>
          5 0 4 2 2.</_></rects>
      <tilted>0</tilted></_>
    <_>
      <rects>
        <_>
          1 1 5 9 -1.</_>
        <_>
          1 4 5 3 3.</_></rects>
      <tilted>0</tilted></_>
    <_>
      <rects>
        <_>
          1 2 4 4 -1.</_>
        <_>
          1 2 2 2 2.</_>
        <_>
          3 4 2 2 2.</_></rects>
      <tilted>0</tilted></_>
    <_>
      <rects>
        <_>
          1 6 8 6 -1.</_>
        <_>
          1 9 8 3 2.</_></rects>
      <tilted>0</tilted></_>
    <_>
      <rects>
        <_>
          1 6 9 6 -1.</_>
        <_>
          1 9 9 3 2.</_></rects>
      <tilted>0</tilted></_>
    <_>
      <rects>
        <_>
          1 7 3 1 -1.</_>
        <_>
          2 7 1 1 3.</_></rects>
      <tilted>0</tilted></_>
    <_>
      <rects>
        <_>
          2 10 2 2 -1.</_>
        <_>
          2 10 1 1 2.</_>
        <_>
          3 11 1 1 2.</_></rects>
      <tilted>0</tilted></_>
    <_>
      <rects>
        <_>
          3 0 6 4 -1.</_>
        <_>
          3 2 6 2 2.</_></rects>
      <tilted>0</tilted></_>
    <_>
      <rects>
        <_>
          3 8 6 4 -1.</_>
        <_>
          3 10 6 2 2.</_></rects>
      <tilted>0</tilted></_>
    <_>
      <rects>
        <_>
          3 9 5 3 -1.</_>
        <_>
          3 10 5 1 3.</_></rects>
      <tilted>0</tilted></_>
    <_>
      <rects>
        <_>
          4 0 3 6 -1.</_>
        <_>
          4 2 3 2 3.</_></rects>
      <tilted>0</tilted></_>
    <_>
      <rects>
        <_>
          4 3 8 6 -1.</_>
        <_>
          8 3 4 6 2.</_></rects>
      <tilted>0</tilted></_>
    <_>
      <rects>
        <_>
          5 0 5 4 -1.</_>
        <_>
          5 2 5 2 2.</_></rects>
      <tilted>0</tilted></_>
    <_>
      <rects>
        <_>
          5 1 3 4 -1.</_>
        <_>
          5 3 3 2 2.</_></rects>
      <tilted>0</tilted></_>
    <_>
      <rects>
        <_>
          5 2 5 8 -1.</_>
        <_>
          5 6 5 4 2.</_></rects>
      <tilted>0</tilted></_>
    <_>
      <rects>
        <_>
          6 0 6 1 -1.</_>
        <_>
          9 0 3 1 2.</_></rects>
      <tilted>0</tilted></_>
    <_>
      <rects>
        <_>
          9 8 1 2 -1.</_>
        <_>
          9 9 1 1 2.</_></rects>
      <tilted>0</tilted></_>
    <_>
      <rects>
        <_>
          10 0 2 10 -1.</_>
        <_>
          10 5 2 5 2.</_></rects>
      <tilted>0</tilted></_>
    <_>
      <rects>
        <_>
          11 10 1 2 -1.</_>
        <_>
          11 11 1 1 2.</_></rects>
      <tilted>0</tilted></_></features></cascade>
</opencv_storage>
